# Layer Numbers: 4
# Layer Number: 0
relu
64 48
# W
0.087814376
0.061563723
0.08916477
-0.15819642
-0.16106899
0.027299345
0.18413615
-0.14653796
-0.12505585
0.14993496
0.02244422
-0.09876045
-0.010404794
-0.016601205
0.19263776
-0.10210703
-0.083443575
-0.21279198
0.20487289
-0.055723105
0.007404441
0.023129456
0.036212146
-0.09233491
0.15883714
0.17006741
-0.030354181
-0.019204535
0.16569538
-0.08176375
0.08541893
-0.044814937
-0.03262946
0.13464949
0.14711103
0.2251563
0.09101628
0.15833725
0.027534228
0.010679823
0.19165632
-0.17543314
0.15521553
0.0025892553
0.04562727
0.21585874
0.0058421115
0.058467273
0.05610805
0.12190552
-0.004387405
0.19203302
-0.027918525
0.34486413
0.1453396
-0.053563472
-0.016594436
0.24524602
0.26237002
-0.21589768
-0.1973622
0.26367775
0.15316907
0.056354478
-0.017093675
-0.05136713
-0.060211554
-0.1667497
-0.03877254
-0.005211398
0.013264343
-0.112091325
0.18578556
-0.12450164
0.16022132
0.0071970103
-0.20422965
0.19722582
0.0946522
-0.24695991
0.100661226
0.14564517
0.097546205
0.09753468
0.1316448
-0.12754491
0.15382041
0.06745511
-0.064059995
-0.17270531
0.040977582
-0.080988474
0.20062575
-0.00354373
-0.1438842
0.20810235
-0.22227937
-0.0883747
0.07844185
-0.16331036
0.01152223
-0.12773117
-0.1596808
0.14436859
-0.20012833
0.034315117
-0.035725176
-0.050347142
-0.146508
0.088811375
0.23510003
0.05338585
-0.15221594
-0.032976463
0.07660398
-0.07597098
0.056047957
0.029668158
-0.18015568
-0.114478596
-0.20929016
0.25898117
-0.14079803
0.052121986
-0.11953846
0.075915456
0.07775753
-0.10149027
0.044881128
-0.08757144
-0.1466336
-0.12168586
-0.026166294
-0.1769162
0.23174363
-0.048411533
0.10545371
0.042731684
-0.15335676
-0.06477939
-0.17614168
-0.016565114
-0.22516017
-0.016942484
-0.06237138
0.12877852
-0.02586365
-0.16342993
-0.09837659
-0.13777031
0.13527332
-0.22913964
-0.021153057
0.0009841064
-0.038927894
-0.21941726
-0.26489013
0.33477032
0.07903309
0.11345922
0.23558486
-0.07641108
0.07508804
0.28064764
-0.13095124
0.0038894813
-0.14267914
0.076936446
0.21591572
-0.064876504
0.022634704
0.08531075
-0.013594775
0.079741545
-0.052753672
0.12070935
-0.20837209
-0.061216142
0.052713845
0.28752267
-0.23046416
0.15998682
-0.006964374
0.004331227
0.17257038
-0.010899559
-0.0030303844
-0.32020706
0.29872298
0.17142309
-0.06734835
0.11658419
0.034463774
0.056833684
-0.023370648
-0.13988572
0.14026989
0.07744115
-0.15235725
-0.12731905
0.1706013
-0.26005974
0.099018
-0.027074005
-0.103978306
0.26623544
-0.23766707
0.066195115
-0.121425845
-0.12926744
0.043579217
0.24006666
-0.109706864
0.13757822
0.043158956
-0.056148455
-0.1575424
-0.06599594
-0.09903722
-0.081811965
0.076839924
-0.28506768
0.105846845
-0.20867302
0.024327256
0.24038927
-0.09798413
0.1360618
-0.049138308
0.057073887
0.033007145
0.044852868
0.10914109
-0.23919712
0.12376591
0.057151217
0.16455598
-0.03483769
0.10449285
0.13518181
0.16023394
0.09143384
0.032876667
0.088248216
-0.16092919
0.17009868
0.018404653
-0.0951083
-0.07464905
-0.19021638
-0.007861303
0.17870523
-0.072360575
0.13978575
-0.079341196
0.09495667
-0.051981192
0.07292479
0.21445683
0.17922398
0.190577
-0.061638284
0.19065835
0.11335901
0.20128594
-0.143504
-0.11388621
0.15810855
-0.16185294
-0.01750499
-0.16468911
0.21584639
-0.1941921
0.24107304
-0.12796251
-0.06857826
0.1714088
-0.15008359
0.10157433
-0.049556363
-0.078345306
-0.21502577
-0.011524247
0.10883471
0.21921025
0.09186791
-0.13410838
-0.13816123
-0.10606972
-0.0011816893
0.15683982
-0.053387932
-0.20868056
0.037999224
0.0318711
-0.03279763
0.030670216
0.20191815
0.008831466
-0.021957656
0.088323385
-0.21439295
-0.24127917
-0.25415528
0.26018634
0.022019314
0.0066948836
0.06958146
-0.023784565
-0.13026303
0.075975925
0.06659393
0.09373226
-0.16505301
-0.03170814
0.04922531
0.049622476
-0.052543085
0.22380699
0.1934952
0.09690932
0.20249818
-0.0011567811
-0.1664685
0.05769895
0.022020202
-0.27136034
-0.097503915
-0.034708787
0.2729551
0.031841777
-0.020022841
-0.049466632
0.20989998
-0.0848301
-0.049516972
0.24283494
0.036292933
-0.21865691
-0.0364576
0.046762194
0.047900632
-0.07496866
-0.04379394
0.14127849
-0.25194553
-0.25915188
-0.11892643
0.0025586786
-0.21905032
-0.17717063
0.15537424
-0.21708813
0.059983052
0.19680157
0.20639212
-0.1045942
-0.23070277
-0.03262451
-0.12061881
0.16278
-0.0147747835
-0.1858393
0.15905574
0.31815383
0.20108151
0.1733864
0.30385283
-0.00046112563
-0.04888704
-0.17989242
0.044719953
-0.1925465
0.12515265
-0.26422638
0.14882563
0.15248482
0.12830068
-0.11339917
-0.09712264
-0.12749088
0.035679705
-0.0873042
0.13222517
-0.17998582
0.009075779
0.21453002
0.16478719
0.1902996
0.10696788
0.13586318
-0.004441891
0.001352635
0.14400706
0.029058639
-0.0679702
-0.038318392
-0.20483884
0.013437301
0.14505346
-0.15526676
-0.19681214
0.24980369
-0.071502164
-0.10345561
0.034835566
-0.050920684
-0.12873709
-0.118273616
-0.26168948
0.031368196
-0.14494503
-0.1793343
-0.0816188
-0.12692824
0.0012058411
0.106028244
0.058366384
0.052295852
-0.107170716
-0.09804518
-0.093973756
-0.035668712
-0.17085527
-0.07703153
0.21126106
-0.18206498
0.292974
0.13294154
0.10521569
-0.17237523
0.1327688
0.11570059
-0.09871023
0.20744006
0.31948912
0.13059653
-0.03319782
-0.19776376
0.21388836
-0.10522752
-0.073077366
-0.07701351
0.25098658
-0.22282353
0.10558654
0.19686364
0.120375745
-0.078118466
0.082759365
-0.1645793
-0.0646772
0.24068715
-0.13947186
-0.1993027
-0.107004166
-0.22269675
0.012941274
0.050513197
0.21635012
0.09104719
-0.08578519
-0.24316834
0.09070955
-0.17516604
-0.0677027
0.07681064
-0.03912211
0.18618892
0.26482186
-0.11009824
-0.09160295
0.1713357
-0.040654883
-0.04762497
-0.07247476
0.19776946
0.14559944
0.19748463
-0.11139941
-0.09163579
-0.04721854
0.20240761
0.097435884
-0.055346124
0.105638996
-0.16203727
0.009857562
0.02158149
-0.066075586
0.07865
0.19616804
0.06548623
-0.10708877
0.024951233
-0.15199499
-0.14894138
0.15027225
0.12276813
-0.05705436
0.1735056
0.15147787
0.061989482
0.041044015
-0.062188495
0.028886667
-0.18010128
-0.00016114111
-0.052634694
0.1423228
0.21783628
-0.14632514
-0.064794436
-0.1477547
-0.22180691
-0.015252081
-0.25734848
0.12323915
0.1397347
-0.094564095
0.06857746
-0.18645704
0.04151959
0.054257102
-0.038700666
0.2147015
-0.086478926
-0.0005240738
0.029917063
0.18878525
-0.012549432
0.2125386
-0.10658006
0.17728929
0.13625528
0.10342232
0.14128982
0.06319087
-0.2364507
0.0065079425
0.09885244
0.20553635
-0.21470472
0.13840146
0.16149165
0.21015145
-0.16816509
-0.12176053
-0.08970923
-0.2168167
-0.23842762
-0.085367225
0.060242414
-0.035381474
-0.10479808
-0.03265559
0.015506741
-0.019100828
0.18234463
-0.123987176
0.018890398
-0.10449616
0.15963383
-0.053279
0.09933698
0.17314945
-0.16176343
-0.1331092
-0.0383181
0.0024579873
-0.19016431
0.22382408
0.19859014
-0.08335744
0.1677538
-0.08242974
-0.1548087
-0.061299007
0.039323803
0.07451251
0.14094798
0.1521169
-0.0045912545
-0.06311094
-0.11278223
-0.1104184
-0.20396739
0.0274627
-0.057587016
-0.07510624
-0.014151726
0.09944455
0.19636491
0.13560946
-0.18685643
0.12292151
0.08300638
-0.09649407
-0.0034460875
0.1947082
-0.15099902
-0.24863915
0.006347919
0.005602481
0.16414931
0.09901501
0.124989666
0.06911763
0.07664977
0.1776905
0.22853869
-0.049510196
0.19809361
0.025657628
0.09508344
-0.225286
0.16754237
-0.17868514
0.011539845
-0.14502083
-0.08280774
-0.11595957
0.06431929
-0.024822673
0.0011431844
0.048674032
0.16147934
-0.11721226
-0.10480556
0.026929235
-0.14921156
0.11180844
-0.07240369
0.25741616
0.24309641
-0.06745018
0.059922386
-0.20729977
0.10737864
-0.16065829
-0.087997556
-0.02300284
-0.16872877
0.09547417
-0.14946564
-0.16408062
0.123040065
0.1237877
-0.052121416
-0.09615428
-0.12986556
-0.1621664
0.12310959
-0.20536986
-0.19386242
-0.17576125
-0.09689978
0.12057366
0.20644161
0.06453968
0.2148499
0.012928879
-0.1274991
-0.026113724
0.19225502
0.064286515
-0.22154532
-0.14593093
-0.17626375
0.09990432
-0.0398728
0.25155792
-0.11382485
0.16940257
0.20207976
-0.049346402
-0.109391786
-0.13308808
0.033286504
0.07213005
0.06442859
0.14060397
-0.1309501
-0.17536828
-0.17801757
0.08789947
0.046056166
0.14635572
-0.19039994
0.048367254
0.0066175847
0.29086927
-0.04441886
-0.03220763
0.09390616
0.013918202
-0.15470378
0.103048556
-0.06602545
-0.02610437
0.14964639
-0.017889304
0.1699848
0.038845368
-0.07935745
0.2320278
-0.23381399
-0.14606029
0.027469395
0.082596816
-0.040725157
0.029494047
-0.13223007
-0.08713629
0.07199328
-0.008438008
0.076030746
0.17217657
0.16563793
-0.1037303
-0.14013119
0.15947749
0.1668443
0.07533164
0.038286068
0.19870308
0.15193453
0.12377509
-0.08786151
-0.06658771
-0.1909881
-0.11575628
0.16625956
0.20660098
0.026330648
-0.13006145
0.12442112
0.13831325
0.2203282
-0.15222047
0.005881458
0.14750358
0.094095334
-0.10414871
-0.2024981
-0.13612856
0.17745212
0.06445306
-0.11769301
0.18732727
-0.25193244
-0.105439104
0.18009178
-0.21947964
-0.09601186
0.062222652
0.20121413
0.18028896
0.085951075
-0.18851604
-0.14529864
0.051827602
0.003791019
0.09763368
0.019408612
0.090630904
0.15824728
-0.1478294
0.032243792
-0.1393899
-0.11675699
0.13026172
-0.050057337
-0.094411224
0.04148238
-0.045651954
-0.07856994
0.13120654
-0.20692195
-0.055656873
-0.2140179
-0.049900565
0.18554775
0.0745519
-0.019465685
0.0998802
-0.007852749
0.15172522
0.1260207
0.062485725
0.060099106
0.025102526
0.11264849
0.24246646
-0.20732734
-0.30314255
-0.21344446
-0.06937507
0.14223005
0.22423357
-0.06773864
0.04150864
0.09336126
-0.05851087
-0.0438277
0.13087887
-0.25099024
0.109879434
0.0021377844
0.31230778
0.19835106
0.08059817
-0.08746953
0.06400652
-0.032998662
0.061105326
-0.08348643
-0.12454272
-0.012230411
-0.0023356453
0.090977706
0.24904385
-0.23954983
0.2034107
-0.041798517
-0.026486084
0.2174835
-0.03098473
-0.06320658
0.33598924
-0.027171418
-0.32874262
0.0769185
0.1741141
-0.19350468
0.18096296
0.060772825
0.09043647
-0.07967601
0.036719352
0.15147418
0.06784923
-0.17388996
0.1492289
0.086598456
-0.032272525
0.109521315
0.038256746
0.07845079
0.15251316
0.11299603
-0.17906012
0.053890537
0.09198371
0.14453249
0.16399463
0.0065413974
-0.2390382
-0.006818107
0.17732547
0.06326686
0.01786837
0.1793658
-0.11337526
0.0720815
0.19599684
0.052501302
0.10688448
0.19418043
-0.17462862
0.08971815
0.19252531
0.1342151
0.027614411
-0.20479684
0.15642942
-0.11913638
-0.25744078
0.0747153
-0.05071754
0.12217507
0.09316612
-0.027662741
-0.11641291
0.112605385
0.18046619
-0.04339148
-0.19898793
-0.05844566
0.0827871
0.013569636
-0.1407222
-0.22266032
0.004694224
-0.093901165
-0.07476227
0.010755088
-0.033815663
0.09719493
-0.030607099
0.14526694
0.117565
-0.102638304
-0.04078181
-0.10729764
0.15474007
0.104152925
0.10372588
0.07797732
-0.16105053
-0.0618006
-0.01004154
-0.21124165
-0.00017613822
-0.14631768
0.15217629
-0.20551805
-0.023027236
-0.1828779
0.09169848
-0.24149477
-0.041789234
0.09310214
-0.13876684
0.21526414
0.09696498
-0.24586508
0.09909473
-0.03448243
0.11051066
0.06963802
0.00037431467
-0.17954524
0.026592152
-0.13047336
0.021470174
-0.05096922
0.14056587
-0.1409107
-0.10683224
0.22164637
-0.10926696
0.23377174
0.14003924
-0.12599377
0.0102620935
0.12348677
-0.1847669
-0.14108323
-0.09290766
-0.0845595
-0.0010275453
-0.09779566
-0.14224942
0.03841859
0.033722404
-0.1752176
0.024793964
0.1148552
-0.04202084
-0.17778368
0.22422433
-0.23035288
-0.052213818
-0.18856367
-0.19560866
-0.13837749
-0.15713526
0.07694879
0.15742275
0.0070408643
-0.11319899
0.01865282
-0.11768633
-0.16830085
0.11180478
-0.128521
0.18426032
0.15043508
0.026477283
-0.1838529
-0.045544352
-0.046915304
-0.09617865
-0.077762835
-0.31466565
-0.036024835
0.1836269
0.1956461
-0.109574236
0.238545
0.15721379
-0.23169796
0.1667825
-0.12124469
0.17370234
-0.15846759
-0.16883634
-0.024478937
0.0063718734
0.084274895
0.05705694
-0.09477949
-0.026650447
-0.008064118
0.047630515
-0.2922669
-0.19663222
0.16357155
0.15686584
-0.011162676
-0.15583608
-0.16373606
-0.18147978
0.2499014
-0.17071712
-0.20472197
0.042840507
0.06783372
0.045354396
-0.03879886
0.022519212
-0.07566191
0.12555207
0.12918068
0.18699905
0.16967818
0.16682072
0.20408681
0.16216339
-0.11963073
-0.16974203
0.16754588
0.25437808
-0.052816376
0.034104258
-0.008769058
0.060902882
-0.16648956
-0.11051326
0.16987345
0.10322467
-0.13933714
0.06980223
-0.13880213
0.2196103
-0.049032275
-0.19446726
-0.085480586
-0.02780844
-0.14643753
0.05331882
0.034255687
-0.09243288
-0.03302727
0.13867882
-0.13841367
0.018493528
0.090866804
-0.23892121
0.18063603
0.053038552
-0.23714198
-0.013481422
-0.055772908
-0.21679303
0.004172975
0.16566974
-0.06306554
0.0046113445
-0.025627447
0.0265782
0.2230905
0.059777528
-0.122933745
0.053287834
-0.1588331
-0.20731895
-0.016823394
0.18712573
-0.04208087
0.21736924
0.046507526
0.032410566
0.08893822
0.07101816
0.027689403
0.0178373
-0.16958946
-0.057941385
-0.014290886
0.18302685
0.024144907
-0.020146905
0.24411722
0.21988037
-0.0080194
-0.036491465
-0.23049952
0.100092724
-0.21602796
-0.17308025
0.030935207
-0.019669207
0.19732428
-0.20605409
-0.17290407
-0.13669868
0.08757405
0.03565752
0.14500323
0.050199978
0.020506011
0.07052789
0.084109664
-0.08262967
-0.21366443
-0.1701431
0.14961512
0.17271325
0.042845096
0.24768777
-0.121148236
0.15934482
0.21103112
0.17985794
0.0402615
-0.11804077
0.22566043
-0.07508707
-0.103978954
0.07138239
-0.0367264
0.19880883
-0.2600656
0.20936638
-0.040930614
-0.011762965
0.027512273
-0.15074952
-0.10351774
0.02841964
-0.1774042
0.07837947
0.13127759
0.013403835
-0.059690874
0.009110421
-0.15838405
0.02036255
0.03675773
0.05853982
0.14791568
-0.15316819
-0.09629592
0.22083734
-0.14035594
0.20609759
-0.095265515
-0.16987878
0.0054865
-0.0909962
-0.12884524
0.1736066
-0.038152363
0.05387616
-0.22746673
0.11788237
-0.09669064
0.19424818
-0.18848453
0.01704865
-0.097868875
0.27484262
-0.17852105
-0.13529734
0.17794411
0.32053295
0.19012588
-0.24423485
-0.024567826
0.07806178
-0.18112569
0.06987753
0.061997227
0.06859478
0.1899538
-0.090842985
0.1775301
-0.16243474
-0.012135325
-0.21951477
-0.095204264
0.13446903
0.066004306
-0.043415073
0.2277819
0.17558835
-0.17943
-0.16582002
-0.21067078
0.012331103
0.14879875
-0.078397796
0.07153571
0.17211473
0.139626
-0.21424279
-0.025738157
0.14950883
0.06394258
-0.25783867
-0.012213933
0.11823498
0.091462284
-0.010335024
-0.04232541
0.23501071
0.07779544
-0.0098708095
-0.0496201
-0.14703694
-0.040676504
-0.08914511
0.03272748
-0.06828469
-0.014546983
-0.10076879
0.13938335
0.03513024
-0.16032553
-0.056396775
0.08667337
-0.14051022
-0.008928932
-0.29659128
-0.27414238
0.17462423
-0.22891663
-0.1958083
0.12692574
0.06969197
-0.045745276
0.19211194
-0.17346686
0.20161895
-0.13547526
0.09362527
-0.19097947
-0.09660051
0.08175222
-0.08791417
0.07106399
-0.046768337
0.012707168
0.122305766
0.13503559
0.20658639
0.18940333
-0.0838693
0.2307249
0.008228845
0.1692478
-0.09084916
-0.16496263
-0.03283909
-0.00381696
-0.021143416
-0.16380057
0.10207744
0.15264401
-0.080032945
-0.18100189
-0.0046519167
0.1376012
0.1454137
0.13873228
-0.160688
-0.019464562
0.014665911
-0.058301892
0.12327565
-0.06920717
0.07671131
0.07203711
-0.030084513
-0.25259703
-0.057415336
-0.0046163914
0.0455187
0.11266931
-0.0665539
0.009270244
-0.025665343
0.25886086
0.16330288
0.0049877805
0.053633463
0.08382462
0.089118324
-0.1164825
0.0055853804
0.087355256
0.05422009
0.17005545
-0.14938593
0.038173024
-0.005368085
0.026882114
-0.16306983
0.09197566
-0.14075553
-0.2448989
0.10076968
0.16077349
0.011296
-0.22452903
-0.14088567
0.1601395
0.2286864
-0.23846368
0.12286144
0.06926123
0.05113465
0.116533265
0.08953526
-0.20419356
-0.15125297
-0.090628974
0.2283362
-0.029371405
-0.14149426
0.058628406
-0.12979788
0.14572906
-0.17919475
0.24177551
0.037925486
-0.0011979697
0.2303813
-0.0963814
0.17761466
-0.07668707
0.062972434
-0.027100313
0.212301
0.14788878
0.1109322
-0.052662324
-0.15504111
-0.10080825
0.030437503
0.049418308
-0.10326409
0.11815341
-0.018588547
-0.14985536
0.21205284
0.2084385
0.14152299
-0.19566506
0.06797797
-0.04837218
-0.11924794
0.2193962
-0.08904991
-0.1149706
0.13484198
0.15732767
0.060942043
-0.111642554
0.043873265
0.020279335
-0.15095744
-0.0004913991
0.20586216
-0.16661103
0.13572535
-0.102828644
0.16222978
0.035876814
-0.055512957
0.054657012
-0.12754983
-0.24660255
-0.117351174
0.08921451
0.056898072
0.08700305
0.18734258
0.12700792
0.07721189
-0.13562311
0.10997743
-0.24297647
-0.08171262
0.22937788
-0.14006834
-0.19117829
0.014793737
0.1369259
0.093599394
0.19941935
0.05337338
-0.07648124
0.14037171
0.020964302
-0.19538185
-0.04192135
0.0019867918
0.12589273
0.10593408
0.040265545
-0.03447984
-0.11020992
-0.23703805
0.24210282
0.15001976
0.21105474
0.116053544
0.118248165
0.10076343
0.06259429
0.09646916
-0.1971954
0.12393128
-0.20385967
0.1082187
0.12806875
-0.20405528
0.03344642
-0.2220774
-0.24087602
0.09257844
-0.17192024
-0.028873997
-0.07478062
0.1270122
0.19223301
-0.096883304
0.07138629
-0.072487995
-0.11489327
-0.1826097
0.12430282
0.22005604
-0.08887598
0.064530194
0.058475636
-0.15754923
-0.0855612
-0.27936321
-0.0019791087
-0.2290296
-0.21971874
0.16404259
-0.11170712
-0.15831265
-0.05824904
-0.114495
-0.16601259
0.022289604
-0.006201505
-0.09245826
-0.25439987
0.0011049431
0.17517686
0.10580873
-0.08780463
-0.20052151
0.015034045
0.15106684
-0.016495774
0.08727041
-0.24178265
-0.021256465
-0.31457776
-0.12690593
-0.118075036
0.12180706
0.08624391
-0.11798579
0.09718889
0.14859928
-0.2501195
0.06994313
-0.03813599
0.15869072
-0.0467922
0.045443587
-0.08203118
0.24359578
-0.22797295
-0.15097418
-0.049736675
-0.1540252
-0.12740506
0.15544167
0.09695409
-0.05093258
0.04906934
-0.17495054
-0.122227624
-0.17848024
-0.124166794
-0.06350099
-0.010235238
-0.082146615
0.09525552
0.23483385
0.1500124
0.17006344
-0.22867407
0.14977165
-0.0010116899
0.14439335
-0.08886363
0.27044687
0.20538735
-0.0893272
0.09222514
0.022941858
0.098582275
-0.15897372
-0.21668147
0.27331322
-0.020941507
-0.20486522
-0.3051756
-0.13284501
0.037529252
0.09665995
0.050081603
0.08228252
0.23887452
-0.14781775
0.17410053
0.19289972
-0.03719947
-0.19522205
-0.00022828662
0.16851236
-0.17630559
0.16494761
0.27871445
-0.012533279
0.24905767
0.0031322574
-0.10090577
-0.14383812
0.02681427
0.16579895
0.05941507
-0.072613016
-0.24338207
0.09846802
0.038119957
0.027040405
-0.2725535
0.17773935
0.06215563
-0.08775129
0.122678675
0.013540806
-0.05466901
-0.056362808
-0.09513054
-0.1484632
0.17829025
0.077987134
0.1863608
0.25420856
0.13736741
-0.18345284
0.165093
-0.05652387
0.14105943
-0.20855577
-0.10707831
-0.26450258
0.057162177
-0.1845373
0.11515592
-0.15247744
0.1464709
-0.079111986
-0.11050224
0.20846812
-0.10906881
-0.1348239
-0.17378962
0.23345384
-0.20025101
0.16332571
0.23990759
-0.14018793
-0.11257271
0.22573484
-0.014397028
0.124146774
-0.036829606
-0.08926097
0.21424313
-0.03495991
-0.04037191
-0.15087484
-0.10053883
-0.10640712
0.19500315
0.008765416
-0.076124616
-0.0333909
-0.18317856
0.19826074
-0.10157311
0.11633555
0.10656388
0.038506493
-0.28393602
0.18197481
-0.14181252
-0.039972126
-0.21596381
-0.09663731
-0.12200576
-0.07774162
0.024510548
0.15275367
-0.19079977
0.0113490075
-0.06266613
-0.17339924
-0.12036885
-0.10644162
0.07801874
0.23493253
-0.18180117
0.13751554
0.20486486
0.0042982716
0.07148807
0.15200491
0.16090237
0.1958871
0.03793763
-0.050164957
0.18170555
-0.008745181
0.028381202
-0.06008167
-0.08020682
0.14700338
-0.16423555
0.19034292
0.042967197
0.22210345
0.16078977
-0.003541497
0.0041713365
-0.1735117
-0.09419095
0.051208384
0.11850478
0.22546035
-0.2353298
0.17186269
0.25368264
-0.17111719
0.19865577
0.17989041
-0.016529666
0.120380715
-0.0058005434
0.16658232
0.23979624
-0.15746342
-0.21194732
-0.010993217
-0.23113897
-0.24106099
-0.039096415
0.030476145
0.02682052
-0.29739138
-0.15101135
-0.14150047
-0.2522496
-0.079715446
0.2341257
-0.112618156
-0.11292072
0.18572114
0.08502426
-0.05663616
-0.174376
0.07085441
0.04334474
-0.11863119
0.042700488
0.010250756
0.1896871
0.20817184
0.006832653
0.011232282
0.040928572
-0.19424762
-0.2527055
0.087868385
-0.016552266
-0.1047487
-0.009282159
-0.042058844
-0.24273948
0.21026574
0.08681849
0.2012792
0.16581978
-0.16580543
-0.011812955
0.26058334
0.020981528
0.16572559
0.16124728
-0.0017965701
0.2945105
-0.11068488
-0.12785643
0.00638979
0.0047591627
-0.07965236
0.06739414
-0.0066187475
-0.2739716
0.112599015
0.069673695
-0.22833537
-0.1438296
-0.09457674
0.067899846
-0.25029433
0.077162355
0.024561755
0.067308255
0.1171007
0.17733254
0.16784519
-0.17092562
-0.050731555
-0.069480844
-0.08696012
0.12674835
-0.14747283
-0.124905355
0.15808319
-0.055639405
0.08618479
-0.1559605
-0.14572205
-0.2914573
0.11702094
-0.0689667
0.10502464
-0.07079472
0.08021852
-0.16968457
-0.12099104
0.17093521
-0.09509193
-0.028560257
0.3054317
0.03157317
0.10450412
-0.06706869
0.20402494
-0.1422222
0.06749713
-0.13126518
-0.09096323
0.1915813
0.18333514
0.03714738
0.11324719
0.14424078
-0.03445759
-0.05643401
0.24966997
0.23874687
-0.074577674
-0.2634561
-0.22952782
0.15180612
0.22722591
0.11915005
-0.08395336
-0.13465372
-0.11484697
0.21340963
-0.10478079
-0.1602285
-0.14735827
0.02243636
-0.08099239
-0.20911817
0.15146106
0.1892517
-0.022923088
0.20375752
0.007070615
-0.027641725
0.11123463
0.06529084
-0.1097859
0.16839036
-0.19802497
0.19681014
0.0874898
-0.0997387
-0.17543517
-0.12460257
-0.0588424
0.13159913
-0.002333558
-0.19416572
-0.12049578
-0.12523371
0.25003833
0.10893505
0.018508125
-0.15839465
0.0078385845
0.15672487
-0.15953152
0.03456819
0.061259974
-0.12235404
-0.039672133
0.15361217
-0.15915652
0.24135534
0.0022726199
0.16825971
0.0077225566
-0.06785302
0.12588856
0.08711582
0.07476987
-0.2103659
-0.18495324
-0.22017327
-0.15135218
-0.044375826
-0.0067365644
0.2310666
-0.027066926
-0.17856722
0.06338596
0.0473072
-0.025593475
0.13685651
0.12598917
-0.064129435
-0.1510885
0.08208574
-0.13508224
-0.1143561
-0.19570105
0.21957721
0.062097825
0.017227273
-0.019180275
0.20529407
-0.029341174
0.058082737
0.106475465
0.021435035
-0.029022057
-0.01919735
0.29670352
0.23061983
0.020704266
0.1830536
0.27000847
-0.13599645
0.00808644
-0.22988312
-0.13162738
-0.13350618
-0.15988298
-0.2052195
0.10453183
-0.21220773
-0.030959683
0.2449631
-0.06999435
-0.12230481
-0.025194922
0.20334429
-0.17578912
-0.25916484
-0.010607656
0.17529476
0.14520216
0.078105964
-0.09379405
0.008791188
-0.14638302
-0.10741841
-0.09820863
-0.018608028
-0.1363395
0.17000026
-0.06920771
-0.31330985
0.21985295
0.16531104
0.10417618
0.11505006
-0.13987848
0.015161985
-0.044511683
0.19107406
0.17130725
0.050133772
0.15234116
-0.12683672
0.18861082
-0.014331089
-0.037987687
-0.08540249
0.21028326
0.26296213
0.11852405
0.07403226
-0.08537545
0.2504959
-0.162775
0.15486605
-0.012845647
-0.17436554
-0.23649247
0.13086636
-0.23139858
0.20586188
-0.13145547
-0.13944662
-0.107164115
-0.03231782
-0.23544304
0.045181245
-0.025866121
-0.17859259
0.13191971
0.14595847
-0.058361012
-0.05580065
0.21687962
0.15524259
0.024292804
-0.07248567
0.086986504
-0.19558714
0.16481586
-0.086594634
-0.13457261
-0.088913776
-0.052563198
-0.15065593
-0.28305942
0.0076984894
-0.06088753
0.049369693
0.0017672345
0.15706146
0.09061099
-0.03822224
-0.19433206
0.07571699
-0.14989676
-0.015474941
-0.1859358
0.01023073
0.012102198
-0.12554155
-0.16789922
0.04353588
0.019300671
-0.2738152
-0.070839226
0.09139333
-0.31350502
0.2879896
-0.19165584
-0.15201011
-0.1082006
0.096195675
-0.117787614
-0.1365812
0.038405824
-0.1227439
0.2121325
-0.009095181
0.1939244
0.09459378
-0.05749649
-0.14996748
0.10357522
0.057527445
0.065957814
-0.31245428
0.11405201
0.34337515
-0.4066034
0.12844941
0.096206024
-0.20673002
0.23621246
-0.11438685
-0.06481921
0.03374061
0.077135734
-0.20891355
0.017569236
-0.33273214
-0.09655889
0.22587062
-0.1951823
0.10121781
-0.21041988
0.083053276
0.14567916
-0.18454711
0.09312877
0.22420555
0.3441276
0.03588525
0.05681834
0.17416312
0.19122836
0.20671493
-0.14731534
0.03805015
0.0910699
0.2195508
0.2034953
0.013460067
0.062183935
-0.041241802
0.18584703
0.21175395
0.15373208
0.20930555
-0.21069825
0.061500162
0.11073766
0.26157442
0.01293178
0.18693474
0.06551781
-0.17056681
0.10781155
0.1270757
0.114728406
-0.010173527
-0.019516246
0.10427485
-0.13987462
0.13653155
-0.12996922
-0.19074734
0.24266423
-0.06716304
0.036305945
0.14993738
-0.16692352
0.10081716
0.08159054
0.008253054
0.053576432
-0.2235064
0.15433112
0.03632224
0.17783491
0.008545336
-0.08449496
-0.11936638
0.11600765
-0.036583915
0.03932416
-0.025357861
0.16633196
0.27299747
-0.24168219
0.09151995
0.14489007
-0.16786377
0.19442868
0.0115212975
-0.049787305
-0.14422184
-0.08541264
-0.010703195
-0.1347507
-0.047144216
-0.21050541
-0.20036688
0.13013767
0.18515144
-0.1427212
-0.044900283
0.05793061
-0.19544877
0.08223003
0.14701778
0.12873966
-0.069491565
0.09087382
0.10980046
0.30833745
-0.04309661
-0.05764562
0.13568689
0.109647274
-0.2749717
0.18441908
-0.13156182
0.06335154
0.14489837
-0.29756674
0.10903549
0.202916
-0.18403794
-0.014282496
0.2601125
0.20294791
-0.115317464
-0.018343935
0.11059937
-0.16091616
0.14666164
0.038844462
-0.058885943
0.16777423
0.04863604
0.18042804
-0.012215564
0.103774294
-0.1665472
-0.055276994
-0.060044
-0.09211849
0.14561737
0.22937089
-0.06098515
-0.13031991
-0.13711788
0.094898865
-0.22625977
-0.21857195
-0.047559362
0.046211198
0.06410482
-0.17679109
-0.069728754
0.14210689
0.22064579
0.19745038
0.18082203
-0.13598853
-0.05428628
-0.21941914
-0.125473
-0.103762515
-0.051035374
0.102083005
0.19246319
-0.14168364
0.16875201
0.1679177
-0.002002931
-0.21758549
-0.18756041
-0.1668814
0.15419322
-0.17325912
0.052223105
-0.015850153
0.22256984
0.19067386
-0.16825974
0.042155787
0.15934452
0.11406457
0.19958055
0.20622481
0.09474464
-0.2938653
-0.10863198
0.14374301
0.022621913
0.15927608
-0.06830781
-0.0897737
-0.038895685
0.24401507
-0.10218146
0.060379244
-0.061731648
-0.22260943
-0.22840676
-0.13786665
-0.084320955
-0.06209388
-0.25062653
0.17961022
0.078340955
-0.09336823
-0.17848593
0.1746635
0.22100665
-0.13474911
-0.13151573
-0.2490087
-0.13383882
-0.035843827
0.08459404
0.14574665
-0.29373407
0.10418836
0.17721756
0.18215784
-0.12228883
0.15008892
0.054094493
-0.054091547
0.19160688
0.14764445
-0.052962895
-0.22045806
-0.13664767
0.17008671
-0.2826285
-0.1875494
0.15938266
0.03311648
0.09362603
0.0771417
0.20324704
0.20085053
-0.09210714
0.16499616
0.14166565
-0.1243309
0.087740116
0.09021863
-0.105743855
-0.14289746
0.15581337
-0.21258676
0.18323787
-0.13993645
-0.08818425
-0.14255996
-0.15458632
0.21584205
0.121336855
0.045084883
-0.1930948
-0.19415018
0.24534307
-0.2472142
0.023926415
0.24455898
0.059949964
0.122959025
-0.26719412
0.15081038
0.16470489
0.05812723
-0.059721664
-0.049943533
-0.2236039
-0.012447358
0.22337581
-0.20158766
-0.0154725425
0.030927561
0.062422384
0.0992719
0.085599825
0.04764058
-0.01927664
0.20262706
0.03541815
0.18078886
-0.17346452
-0.17675242
-0.19134076
0.28776878
-0.12828414
0.20470572
0.09977904
-0.16684924
-0.19301355
-0.18475294
0.005357743
-0.10624074
-0.04772983
0.042869776
-0.11654303
0.20285194
-0.13672268
-0.23345014
-0.1023834
-0.037231643
-0.09170402
-0.103885815
-0.080435336
0.22600934
0.19206755
0.19879657
-0.14697495
0.24486357
0.13235165
0.1077973
-0.1014901
-0.20113166
0.09568678
-0.16738322
-0.18236566
-0.0006314718
-0.05821896
-0.14332815
0.13197267
-0.16231409
-0.09382267
-0.021847207
0.1980968
-0.030714361
0.1790217
-0.11411404
-0.07263993
-0.058484122
0.19803478
-0.13952099
0.040443704
0.033895023
0.09600266
-0.07053874
-0.21451819
0.21104437
-0.14833623
0.18888089
0.07912539
0.25539413
-0.27730808
-0.28448188
0.07775907
-0.09518532
0.17397524
-0.07969638
0.061465155
-0.0025547172
0.1578593
0.0416193
-0.11033465
0.090366326
0.16210333
0.011973228
-0.05297166
-0.020998329
-0.2536683
-0.05770458
0.08026985
-0.21969222
-0.119032055
0.06181377
-0.124794304
0.20373699
-0.058313623
0.23138018
-0.24785346
-0.05727407
0.12669834
-0.08769892
0.10504463
0.119262785
0.08451608
0.16601461
0.056089792
-0.072033554
0.19199392
0.013482336
0.06412401
-0.05481341
0.06530928
-0.04253898
0.025039904
-0.09468947
0.018042497
0.06751492
-0.08867789
0.17378733
-0.13604042
-0.11480443
-0.10698457
-0.15990424
0.10927831
0.011771303
-0.07370152
0.20980096
0.10058148
-0.14771214
-0.20332181
0.18922721
-0.31194806
0.3397956
0.1543582
-0.011330785
0.22145557
0.09522282
0.084749006
-0.07572386
-0.19120498
0.12378842
-0.049788166
0.23418032
-0.1606736
0.1953567
0.021214766
-0.15234105
0.18685105
0.08715212
-0.21890403
0.15909924
0.2664948
-0.2467777
-0.09500981
0.22923067
-0.04046208
-0.06657935
0.044568285
-0.22658935
-0.17319131
0.087982684
-0.12298829
0.1796476
0.07014605
0.1374451
-0.08502024
0.1448518
-0.09451764
0.0010413252
0.05311713
0.023403997
-0.04541286
-0.006392987
0.12566572
0.07620863
-0.15130934
0.21376172
-0.02275568
0.021649316
-0.18616192
0.1506351
0.1705059
0.072903246
-0.30584335
0.16014484
0.14287616
-0.16554335
0.12351938
0.05921565
0.2009356
-0.041106306
0.0882905
0.1927184
-0.19386177
0.03937518
0.18687272
0.07836207
-0.21817665
0.078890726
0.047278587
0.17922425
0.20943488
-0.024937147
-0.2691092
0.026439006
-0.007734246
0.0030166733
-0.1726145
0.16119711
-0.13423263
-0.16609448
-0.10351563
0.0037696452
0.27930832
-0.06747086
-0.05610896
-0.14949699
0.14176431
-0.021835458
0.0004967608
0.091231465
-0.10677956
-0.018460646
-0.023253612
-0.00034217536
-0.042116407
-0.019717168
0.023833454
-0.14079961
0.019458108
-0.2764661
-0.012762427
-0.47490856
0.15080845
0.13337012
-0.13538332
-0.23276815
-0.015422601
-0.18255123
0.16566537
0.22409995
-0.14441194
0.1111988
0.051945094
0.010350316
0.20156793
0.047521
0.051381968
-0.16946666
0.0404988
-0.25816253
-0.051692516
-0.01722216
-0.13658427
0.18700267
-0.16760398
-0.0010415318
0.11892531
-0.099858105
0.14056557
-0.17274033
0.17942391
0.04175637
0.2336862
-0.09649436
-0.116046615
-0.18998215
-0.18528801
-0.1140956
0.19405557
0.17087972
-0.21295118
0.097476356
-0.15315746
0.09637777
-0.26574785
0.071509995
0.0035730219
0.14087357
0.08336427
-0.17277081
-0.047779057
-0.03935758
-0.13194469
-0.121391036
-0.07177735
-0.22472195
-0.12529206
0.09650023
0.20845142
0.25550497
0.038080085
0.095066726
0.10195298
-0.07231468
-0.14239085
0.22950788
-0.093752116
0.042029206
0.15138118
-0.04068139
-0.14464106
0.09097698
0.13133337
-0.1862998
0.09674765
0.111997016
0.16136041
0.22399443
0.07309336
0.1268919
-0.18551554
-0.18994612
-0.11910906
-0.090540774
0.091325946
0.15802456
-0.11989053
-0.03746431
0.016054088
0.067168616
-0.1984818
0.1998911
0.0011223358
-0.13414972
-0.06598744
0.018071482
0.19151478
-0.014859058
0.05730312
0.10216046
-0.15163867
0.07856835
0.09660826
-0.14428599
0.14037864
-0.07869868
-0.15901233
0.078076586
-0.0995269
-0.21667258
-0.15809634
0.13781516
-0.09329318
-0.0025514178
0.15218855
-0.21820123
0.17806509
-0.23282208
0.2270308
-0.03296701
-0.13132206
0.20230132
0.04993184
0.21534444
-0.11638283
0.007948467
-0.07796689
-0.039841857
-0.071890615
-0.2610799
0.094555385
-0.16342825
-0.22211461
-0.061068904
-0.0445122
0.05082963
0.016473211
0.09763565
-0.067841515
0.08576491
0.06529023
-0.06608745
0.12465315
0.17778577
-0.23213597
0.10168698
0.017212331
-0.07229756
0.09829617
-0.05229364
-0.11040216
0.1667821
0.21645696
-0.20700987
0.19211704
-0.12232925
0.14660978
0.08715552
0.16558047
-0.09206581
0.12183282
-0.1303411
-0.074900314
-0.06970579
-0.101255074
0.15410304
0.11019274
-0.15275331
-0.021475127
-0.1955808
0.13400584
-0.27204505
0.14601786
0.18620206
-0.33220345
0.24395336
-0.098109245
-0.025340555
0.14124452
0.24025267
0.22366019
0.04420412
0.0015097079
0.059655204
0.00927978
-0.15026009
-0.09955782
0.14058162
-0.14201969
-0.08471939
0.23166308
-0.010063877
0.0694726
-0.22813645
0.13921116
0.23034868
0.013728885
-0.042506304
0.218521
-0.049763285
-0.0060809697
0.15957664
-0.19817494
0.07412013
-0.042838473
0.19353038
-0.17286794
0.2507261
-0.29678515
0.25204942
-0.00080750673
-0.22396451
0.051983062
0.17384508
-0.17057069
0.015687276
-0.12960248
0.0830359
0.08863359
-0.050076168
0.24510716
0.2263562
0.28247532
-0.06865619
-0.18528832
0.1338334
0.2947768
-0.06477165
-0.09811457
0.20570588
0.23389414
-0.21864729
0.07274202
0.03459345
0.19588591
-0.18546207
0.11585892
0.10956239
0.03403841
-0.16493824
0.0656386
-0.0850046
-0.069925316
0.04747769
0.009567021
-0.17923711
-0.13327171
0.24438976
-0.29018196
0.03596629
-0.1515921
-0.19051886
0.3218252
-0.16853133
0.018495465
0.008530208
-0.17455241
-0.08557376
-0.09365871
-0.15242076
-0.20309955
-0.117111936
-0.28094733
-0.046234164
0.2930514
-0.039283816
0.0734574
-0.17960633
0.22765024
0.21090393
-0.0058878292
-0.15130863
0.11370433
0.061170645
0.06396765
0.2599433
-0.30252352
-0.25179377
-0.1727163
-0.03092655
0.09798116
-0.09153958
-0.10857977
-0.15379997
0.010960045
0.09079588
0.05834981
-0.052389875
0.12441652
0.17793792
-0.07968026
-0.16493127
-0.119550735
0.08312561
-0.15407349
-0.17911276
0.22539452
-0.078599036
-0.1879336
0.17384124
-0.03841675
0.11297304
0.13449566
-0.23631346
-0.10753179
-0.19687471
-0.11074286
-0.09088567
-0.14999264
0.19245213
0.12184854
-0.1197944
0.31326276
0.00812388
0.03979693
0.24586232
-0.23493989
-0.005926394
-0.10196949
0.15105417
0.20933579
-0.21499826
0.00024547192
0.05128773
-0.13440014
-0.05615437
0.23678535
-0.20103565
0.036285333
0.15615554
0.08458498
0.20764391
-0.0417482
-0.19423044
0.0766896
0.20282257
0.073066495
0.20761949
-0.14561114
-0.11516945
0.18218677
0.026084978
-0.2355151
0.20918226
0.029883029
-0.13998291
-0.0648868
-0.08597479
-0.08250832
-0.051170338
0.013198738
0.21900947
-0.2317296
-0.1142837
-0.010049824
0.014626774
-0.31336033
0.035283495
0.1558694
0.25629333
0.17345
-0.2793897
-0.049820952
-0.20398082
-0.16450076
-0.13741714
-0.22290975
-0.112212405
-0.14348519
0.12331456
0.25333747
-0.22554447
-0.03901308
-0.011648449
-0.052475523
-0.18737821
0.05736562
0.14600968
0.17553729
0.108702764
0.16269116
-0.045607664
0.02441452
0.004450413
-0.055783823
0.10757512
-0.12230925
-0.25144112
-0.2115476
-0.081600994
-0.06644511
0.05291905
-0.23506053
0.03586982
-0.14737572
-0.073082544
-0.030587718
-0.13356182
-0.15633965
-0.12478672
-0.22931974
0.12059579
0.0026093489
-0.25411862
-0.18773502
0.0963195
0.051174764
0.05936921
0.06082338
-0.03175401
0.25322548
-0.2359908
0.20367463
0.06454956
0.14024009
-0.20919833
-0.22986785
0.23163444
0.22534862
-0.07312331
-0.18904911
-0.057814598
-0.18783545
0.013962937
-0.18701279
-0.23882608
0.18171151
-0.12124192
-0.06711971
-0.047458842
0.1269487
-0.016578196
-0.22118126
-0.19427861
0.12186001
-0.093820095
0.083130956
-0.25339574
-0.28030553
0.102162965
-0.02261989
-0.0317409
-0.08898133
0.19470017
0.046057146
0.1812309
0.057462063
-0.026717484
0.107774265
-0.16749726
0.00056203984
-0.2736965
0.17569016
-0.18618642
-0.15714699
-0.17144887
-0.19442008
-0.09429694
0.21558973
0.13339351
-0.19381303
-0.016616467
0.23650624
0.26045927
-0.15417525
-0.18912289
0.1007868
0.2685625
-0.15200599
-0.20527737
0.06629165
-0.13016006
-0.049011745
-0.054380246
0.22380428
-0.104058124
-0.006492035
-0.07544237
-0.15859428
-0.15064152
0.23557197
0.18255156
-0.23651673
-0.15379763
0.014017071
-0.05784789
0.14275227
0.012773627
0.096734546
-0.12955658
0.08543877
-0.17984894
-0.047667786
0.10509168
-0.07567059
-0.03498242
0.19280085
-0.211326
0.17767785
0.11423943
0.23774517
0.15180732
0.14836635
0.016939571
-0.255875
-0.15220322
0.076067835
0.018892333
0.04779237
-0.13062747
-0.09534741
0.13187134
0.23548636
-0.3032696
-0.27266014
-0.10834774
0.19431052
-0.27916753
-0.01076304
-0.10649985
0.21106885
0.02733273
0.13969758
0.0748691
0.08225258
0.23618081
0.15386546
-0.10449379
-0.22290213
0.082302965
0.20099665
0.018220114
-0.15924366
-0.23380889
-0.026018837
0.05871807
0.12038874
-0.06446592
-0.00038314343
0.0031148724
0.013807484
-0.022262774
-0.10865025
-0.18045321
0.19285138
-0.05692648
0.00296459
0.14362991
0.21777995
0.0053163893
-0.042547736
0.0059181545
-0.09033827
-0.32234865
0.09826814
-0.224288
-0.13528123
-0.07848871
# B
-0.0029544735
-0.0027543053
0.023262667
0.028299417
0.05993464
-6.80398e-05
-0.02145488
-0.011088157
0.010180053
-0.013375421
-0.045389183
-0.014851716
0.047237325
0.025216712
0.0049455706
-0.03363244
0.032543126
0.05919507
-0.06664443
0.014997384
0.031782743
0.10868275
0.01593498
-0.015785608
0.03675483
-0.025123049
-0.03543497
0.051496737
-0.0803095
0.057605565
0.055557225
-0.019956347
-0.05275755
-0.023023646
-0.0139961075
0.02234236
-0.020976685
-0.004669404
0.034919873
0.05366089
0.016340898
-0.019090382
-0.021516496
-0.06497037
0.029005628
-0.03993557
0.002386979
-0.033169206
-0.069978975
-0.04597915
0.016035996
-0.009536823
0.055117894
-0.0046785036
-0.028731095
0.011025202
0.014045319
-0.11051462
-0.034646668
-0.05426927
0.03390057
0.041786853
0.0018592536
0.016904615
# Layer Number: 1
relu
32 64
# W
-0.24257272
-0.07776018
0.2145481
-0.06576339
0.124736756
0.19876201
-0.059428744
0.112154305
0.0635672
0.19340579
-0.1421264
-0.16980402
0.00038616703
0.2735823
-0.2522848
-0.13321228
0.24501652
-0.05077291
0.09944119
-0.117737405
0.0030538288
-0.14950417
0.077701755
0.20107897
0.26975065
-0.14309789
-0.092161335
0.19336179
0.20746788
-0.22587784
0.18479957
0.17239532
-0.018051933
0.05014269
-0.16351558
0.1921597
0.23304845
0.011923975
-0.003790872
0.13533865
0.0832314
0.028579732
0.20572072
0.04642162
-0.14119333
0.118901365
-0.047581613
-0.059101254
0.14784999
-0.011945954
0.15637337
-0.13564806
0.021957474
0.10461027
0.16780438
0.106028534
0.25495774
0.06597278
-0.19677185
0.15853706
-0.009594675
0.17685817
-0.20669088
0.13098142
-0.19366984
0.15174443
-0.06112263
0.0056078904
-0.041044913
-0.048526622
-0.30168554
-0.08296884
0.025263142
-0.20397285
0.0003098141
-0.2602477
-0.17551123
0.06026685
0.03722502
0.123918325
-0.16938458
0.15372273
0.030535633
0.24000022
-0.2674214
-0.15013134
-0.087843426
-0.22842212
-0.038456928
0.1209985
-0.07830936
0.082135364
0.25217718
-0.045774117
0.06848471
0.03789768
0.24683882
-0.124911755
-0.17100376
-0.20721248
0.0840831
0.08121964
-0.21296643
-0.1794112
0.19671467
-0.15487255
0.15495378
0.24733871
-0.015405334
-0.16819756
0.086673506
-0.29614192
-0.08761925
-0.14209446
-0.013634977
-0.24558455
-0.026333498
0.072585225
-0.09994479
-0.10392797
0.08736614
0.14892325
0.12414558
-0.0525662
-0.004574639
-0.09192523
-0.017862322
0.18345955
-0.010722819
0.07759347
0.26322567
0.0034785913
-0.026179979
0.15696087
0.14058778
-0.09130963
-0.21138404
-0.078146204
-0.12955457
0.04071289
-0.20084381
0.09334486
-0.18568937
-0.23844717
0.17029889
0.055423517
0.21644501
-0.14714122
-0.18823418
-0.054234244
0.21785073
-0.07271694
0.16626652
-0.12494589
0.20537308
0.023063017
-0.25973797
-0.019270236
0.2827266
0.028872402
0.09067973
0.043109797
-0.10427029
0.23961668
0.21614224
0.22299181
-0.17259483
0.19240236
-0.09080318
0.05379378
0.20688127
-0.05136931
-0.31269553
-0.019991873
0.0041321446
0.09998865
-0.050318163
-0.0035247887
0.05801026
0.17458071
-0.21141478
-0.0850004
-0.23160475
0.1387224
-0.107878014
0.26145875
0.16271634
0.019054918
0.020289496
0.21624711
0.06960174
-0.061256967
0.04566622
0.16968414
0.11458099
0.15379947
0.119496725
-0.27368948
-0.14031246
-0.1167139
-0.0866154
-0.10678082
0.1163518
0.13695502
0.1433736
-0.10568446
0.17580508
0.13622966
0.0072550066
0.03189313
-0.12335862
-0.010198585
-0.005123133
0.20495628
0.18048754
0.16205119
-0.10677317
0.14000148
0.080441676
-0.087239064
-0.11065631
0.03180178
0.039876148
0.08438598
-0.21772192
-0.10477972
-0.022387015
-0.12278134
0.059892613
-0.20982422
-0.047300216
-0.0041299667
-0.12836203
0.20506507
-0.3025277
0.1444042
0.035115395
0.1549131
-0.031530026
0.1066758
0.18188559
0.19350858
-0.055812255
0.06852405
0.2754451
-0.05096997
-0.1972055
0.035799507
-0.045076247
0.080323964
0.06511903
0.025652567
0.097876914
-0.026103545
0.19033733
-0.18631874
-0.109245755
0.045416385
0.08785212
0.18763475
0.27615675
-0.23965235
-0.020813657
0.12700182
-0.00960827
-0.17018615
-0.11718743
-0.07353415
-0.21780996
0.0012483894
0.08147779
0.2362764
0.19852534
0.2242214
-0.04241225
0.08577694
0.2083424
-0.25809985
-0.2972978
-0.073793985
0.061614573
-0.10432867
0.06505896
0.08637818
0.06761982
0.13180879
-0.05946844
0.10717954
0.05217485
0.021425541
0.16783246
0.10941414
-0.23769961
0.18359944
-0.21515785
-0.008590853
-0.18031195
0.229912
0.016167128
0.15811184
0.02453853
0.21785364
0.19869334
-0.08977063
-0.21040948
-0.00010971668
-0.03655822
-0.14563997
-0.048787076
0.094752185
0.060203318
-0.04353578
-0.16286676
0.17120849
-0.06952974
0.21503122
-0.027789919
0.18444423
-0.18059273
-0.013419369
-0.21454677
0.041427948
-0.24784763
-0.3472176
-0.1780421
0.1528178
0.3267579
-0.2045145
-0.091449715
-0.048873786
0.13517775
0.17905088
-0.046904627
0.17472894
-0.22001787
0.21414359
-0.35656565
-0.113326855
-0.12084688
0.040532503
-0.007903549
-0.15552641
-0.18263681
-0.041480653
-0.2552128
0.05021009
0.042368658
-0.1297551
-0.1363125
-0.07196814
0.008437651
-0.07984572
0.07999859
0.055476867
-0.1636374
0.23032364
0.1794464
-0.079845585
-0.0607884
0.029153721
-0.045739133
-0.14856866
-0.02059859
0.0692066
0.2434255
-0.30259308
-0.101767585
-0.15811299
0.07664729
0.31755725
-0.2536287
-0.035756346
0.26949996
-0.2631407
0.21172114
-0.23626263
0.02582354
-0.05664598
-0.18515147
0.23390912
0.13338153
-0.07509907
-0.24120845
-0.12196128
-0.33893922
-0.025878126
0.227059
-0.042267006
-0.04762082
0.13697368
-0.13065842
0.07089271
0.20925416
0.063914984
-0.08339662
0.022687757
0.04092209
-0.14117008
0.11294626
-0.18652534
0.3152277
0.098634824
-0.012336537
0.08309405
-0.14562856
0.20911865
0.033009287
-0.1739622
0.098012045
-0.22281335
-0.046942707
0.092500016
0.10289637
-0.19695395
-0.15842795
-0.10309431
-0.040761303
-0.2596581
0.14801933
-0.096291825
-0.12492099
-0.110392965
0.2341411
0.087148726
0.06251588
-0.23427382
-0.060859475
0.2544706
-0.17286943
-0.22882716
-0.04350436
-0.18847702
-0.2778198
0.16215922
-0.17344578
-0.16247644
0.17538597
0.19764447
0.10361663
-0.079638585
-0.02538429
-0.21391355
0.17682366
0.2648799
-0.2502284
0.10925104
-0.15522921
-0.045667436
-0.046495304
-0.0703615
-0.19534478
0.059000462
0.105937466
0.27078962
-0.0324599
0.09617795
0.15614331
0.28467345
-0.23238982
0.025096582
-0.14780919
-0.12796219
0.26963344
-0.10411036
0.047084782
0.03422117
-0.21315481
-0.24721238
0.2330133
0.22877476
-0.13909936
-0.22329979
0.25379202
0.19130893
0.08800203
-0.06032073
-0.121081956
0.20450082
-0.10892657
-0.10037608
0.036416885
-0.24482347
0.019405406
-0.16797969
0.14231406
0.053397954
0.032157835
-0.07002194
0.1767008
-0.20906906
0.03126135
0.16304241
0.16801767
0.17002991
0.19831446
0.1837306
-0.04684082
-0.24250242
0.1998665
-0.0038144381
0.016155506
0.004658388
-0.11756955
0.09099175
-0.06814214
-0.118104115
0.045089267
-0.00963864
-0.27463248
-0.01826966
0.1398776
-0.1767288
0.055605482
-0.12298728
0.0745449
0.19648111
0.11467271
0.100696184
0.057926543
0.1921514
0.13178182
-0.19496013
-0.23260194
0.011463212
-0.19750006
-0.014477381
-0.11081939
0.15442516
0.005647404
0.14602394
0.13873841
-0.122557834
-0.12816969
-0.27694994
-0.16521853
-0.037756592
0.09059099
-0.03307125
-0.14095674
0.1803508
-0.1010923
-0.10025504
-0.14423275
0.07041035
0.20003384
0.23959947
0.0575747
0.22605814
0.27677658
0.20192367
0.08046957
0.0065210937
0.08668704
0.04280629
0.29107192
-0.013288561
0.03982294
0.1412755
0.22119838
-0.11000872
0.047571138
-0.1674518
0.0664561
0.21707267
0.2487334
-0.09858729
0.058389597
0.082428694
-0.19365834
0.07663277
0.15116903
0.084914885
0.083880164
0.010213757
-0.070977695
-0.04797601
-0.1763364
-0.14071906
-0.11387329
0.29738492
0.09284353
0.017281637
0.29125214
-0.03152466
-0.025836945
0.030850565
0.1518705
-0.14368343
0.15381804
0.18256094
-0.1794849
-0.2560503
0.06439246
0.15267913
-0.03587581
-0.14871667
0.2117671
-0.02877268
-0.023540076
-0.0077033695
0.1105254
-0.0010822307
0.08785358
-0.054056447
0.114199154
-0.13961911
0.064764515
0.12405485
-0.06761271
-0.33694154
0.034508336
-0.2441448
0.28830716
0.26873165
0.04914179
-0.3435221
0.008814287
-0.09873196
0.04709565
-0.043951966
0.2927081
0.022763252
0.25704473
-0.025872849
-0.06901184
-0.11620928
0.36416873
-0.08235772
-0.15522671
0.17941903
-0.08166931
-0.16836947
0.23361647
0.20698257
-0.14134055
-0.1937558
-0.36228547
-0.2804092
-0.066792205
-0.08360006
0.17202193
-0.2537253
-0.07974192
-0.13481365
-0.16489123
-0.34514076
-0.24968179
0.14239919
-0.07534614
0.16601901
-0.21300364
-0.02470009
0.032897666
0.15271164
0.045506544
0.14890084
-0.24120204
-0.23966983
0.10193004
-0.06206693
-0.1328367
-0.0337747
0.21929967
0.10947911
-0.26453063
0.14322065
0.033217136
-0.0068443203
0.12237631
0.13593283
0.3294755
-0.09936915
0.14729892
0.2528135
0.10916314
0.35065645
0.053033542
-0.057396907
0.13958988
0.29477417
0.28362113
0.10551915
0.03816414
-0.036345787
-0.09437305
-0.0018662829
0.25915486
0.11802469
0.06379112
0.16859594
0.04321586
-0.023459516
0.051397227
-0.15682672
0.12255378
0.16346635
0.44064277
-0.17216738
-0.28237155
0.22851615
0.41231754
0.010021667
-0.0998355
0.038693767
-0.019636387
0.24506718
0.30063567
0.124487735
0.20711128
-0.1928386
-0.0023431065
0.1440887
0.22288221
0.05866304
0.26179856
0.27403894
0.007078206
-0.18783636
-0.05247035
-0.14249176
0.029763835
-0.09329493
-0.18276583
0.0002475869
0.16003473
0.19036049
-0.10300643
0.06823881
0.22504832
0.20832093
-0.08497188
0.09147496
-0.17067957
0.16058233
0.14380449
0.008769926
0.11516987
-0.04098143
0.040968433
0.14984448
-0.25728175
-0.16972756
-0.26862177
-0.03030158
0.08372464
0.24641666
-0.11118082
-0.12439619
-0.18908142
-0.23093677
0.22106586
-0.29961598
-0.2154733
0.18632463
0.1724339
0.24267615
-0.0006893685
-0.13339579
0.19763544
-0.166427
-0.19445959
0.03515575
0.03312711
0.122039676
-0.19688554
-0.21573393
0.19988494
-0.11550154
-0.42161435
0.0821483
-0.40665907
-0.14556162
-0.22882064
-0.13688102
0.046569977
-0.05044922
-0.0018736355
-0.14013594
0.20600379
-0.28564543
-0.19714384
-0.2634612
-0.3003332
0.052096684
0.22632277
-0.013033545
0.25833917
0.30621785
-0.053814277
0.1103787
-0.13038595
-0.25244337
-0.33830413
-0.13179116
0.12245575
0.02682343
0.17047122
0.09775932
0.2275021
-0.05207569
-0.3258025
0.22322854
0.30634713
0.06934776
-0.029616693
-0.067612745
-0.14579631
-0.10362236
0.3001291
0.05957526
0.06173521
0.1890418
0.11670912
-0.18549962
0.29648235
-0.20548506
-0.2518726
0.2202675
-0.08307227
-0.011830109
-0.037906792
-0.21544798
0.29369655
-0.018667351
0.23395601
0.022302952
-0.27413088
-0.16267107
-0.045717437
0.26493883
-0.2081162
0.046655193
-0.03140575
-0.14310396
0.30696952
-0.22219656
0.04127085
-0.045152277
0.22702768
-0.04268009
-0.25375104
0.05809638
0.06509863
0.014829325
-0.33972546
-0.07861678
0.1529743
-0.2684143
0.2035371
0.16757743
0.023761844
-0.13847645
0.10911901
-0.25329697
-0.0006969297
-0.0823309
-0.31923375
-0.077432916
-0.014487494
0.10352109
-0.11368423
-0.11659931
0.07556474
0.1213705
0.2271189
0.120443575
0.046979893
-0.101780996
-0.039704494
-0.17431617
0.07549237
0.21436688
0.26687938
-0.27621096
0.25651467
-0.12957902
-0.1776598
-0.032696914
0.041420057
-0.16038392
0.17280923
0.28518957
0.050075594
0.23908827
0.05937106
0.09074518
0.21027629
-0.1780523
-0.19804725
-0.28744468
0.08454044
0.25233984
0.2800933
0.15865883
-0.06649859
-0.2642879
-0.030840753
0.16232087
-0.08364267
0.26469323
0.075604446
-0.12131752
-0.17983098
0.23634686
0.057954505
-0.0010342419
0.33360443
-0.13759646
-0.04509753
-0.20766827
0.20487545
-0.14064978
0.27762517
-0.1435571
0.12616359
0.10792717
0.1232788
0.18214475
0.08095403
-0.11194648
0.22297035
-0.2596917
0.1410589
-0.20546034
-0.13543364
0.042130716
0.079634815
-0.10277664
0.023204805
0.13687484
-0.1441595
0.3464451
0.08290021
-0.53943354
-0.2518655
0.0037499326
0.33548582
-0.031928718
0.05816476
-0.11832944
0.105392486
-0.0016320231
0.1448691
-0.077959575
0.19080879
-0.068444125
-0.08953328
0.3235167
0.32062173
0.19698852
-0.18099631
0.21561506
0.25511032
-0.1781721
-0.11428316
0.19590983
0.38496694
0.14998616
0.14946334
-0.23268084
0.07280256
-0.24536577
0.20807965
0.18206774
0.059858296
0.18673226
0.03478227
-0.10461536
0.25500336
0.11345219
-0.0991305
-0.08706855
-0.19212921
0.064581126
-0.0230289
-0.24540412
0.028601123
0.03971383
0.18035313
0.053123474
0.11410747
-0.11231505
-0.007519706
-0.20396748
-0.013379291
-0.049223237
-0.29557592
-0.08433251
0.22528608
-0.048124507
0.20206685
0.15951492
0.16889709
-0.06098285
0.22873285
-0.047057793
-0.107269295
-0.1454297
0.24762401
-0.18442807
-0.14599009
0.082933865
-0.20497696
-0.16923475
-0.17376591
-0.1509426
0.20432854
0.042486705
-0.034124646
-0.05400645
0.085369766
0.17997523
-0.07686607
0.07461174
0.0596379
-0.17619617
0.19258219
-0.09295797
0.059687473
0.2312872
-0.11792582
-0.021875083
-0.10264445
-0.10168894
-0.11489057
-0.06770479
0.052476242
0.08046093
0.05540504
-0.03340928
0.11334788
0.23990043
0.030362269
0.19607964
0.21772394
0.1609948
0.08205308
-0.04872229
0.090536565
0.23796095
-0.08554503
-0.06654833
0.1427627
0.1128963
-0.010923574
0.11728497
0.2850969
0.24942306
-0.14650448
-0.22587357
0.15692286
0.18670312
-0.19725025
0.21416648
-0.2692123
-0.063425854
-0.09466659
-0.20048377
-0.12691002
0.004486145
-0.11400799
0.09186254
0.10647594
-0.23437412
0.23654267
0.17144479
-0.12274616
0.20510606
0.044184916
-0.14525343
0.20884976
0.02320441
0.07625819
-0.17849262
0.18765636
-0.27759266
-0.01726696
0.060379744
0.2707291
-0.04902673
0.024109319
0.06852622
0.061047334
0.12361574
-0.21913485
-0.06591434
0.16491912
-0.0002216073
0.24684466
-0.08252153
0.05786435
-0.2612256
-0.24411294
-0.09790276
0.016191695
-0.12099003
0.18779296
0.093442895
0.1412456
-0.12272279
-0.33176517
0.30457187
-0.18791535
-0.060321636
-0.03713745
-0.16645561
-0.021208018
-0.11255528
0.12062843
0.03693684
-0.12296285
0.1912514
-0.11677671
0.28935206
-0.1747251
0.16692588
-0.12685186
0.16405088
0.039944254
-0.052093495
-0.053050734
0.14649704
-0.18576083
-0.17684084
0.19050294
-0.2995212
-0.16806006
0.18570358
-0.20358135
-0.24480754
-0.13312374
0.0015022518
-0.07535422
-0.1227974
0.010757669
-0.22217034
-0.27255192
0.16635714
-0.108291686
-0.005286391
-0.2492815
0.105449945
0.18286479
-0.11299616
-0.08976855
-0.059062228
0.21354039
0.26722333
0.18857212
-0.03339086
-0.10962681
-0.11442059
0.083350964
0.16658355
-0.16141115
-0.2570029
-0.07790881
0.16297129
0.10897145
0.15487617
-0.1837372
-0.12248867
-0.122516036
0.08493609
0.20628493
0.0064931107
-0.1907728
-0.24021874
0.15140826
-0.16430527
-0.06648788
-0.17249535
-0.016073335
0.08636814
0.009229061
-0.23903632
0.13673493
-0.19325165
0.0020724547
-0.08291187
-0.08723048
-0.12462657
-0.011795867
0.16879116
0.1304973
-0.07576612
0.0106762005
0.010886133
-0.029330902
0.12903729
0.058551792
-0.2574748
-0.094875105
0.057256285
-0.17962459
-0.091815025
-0.13867722
0.023781894
-0.08457852
-0.34366015
-0.3537813
-0.16490212
-0.12310635
-0.060173508
0.113105804
0.27177137
-0.17645769
-0.027434403
-0.10269795
0.19860199
0.01822351
-0.08471176
-0.35677978
-0.018955484
0.15427004
-0.09280673
0.12135575
0.32546297
-0.034411035
-0.1255268
0.2674629
-0.20387761
0.052468076
0.082670696
0.2225883
-0.15395308
0.07893974
-0.09741171
-0.30195403
-0.09029754
0.20851684
-0.079035245
0.21480957
0.2305369
-0.14603119
0.3148403
-0.18006931
0.15461588
-0.112922475
-0.14173362
-0.049337503
-0.110144116
0.21208587
0.22228941
0.07393946
0.22274359
0.1563939
0.13986933
0.000862763
-0.044020526
-0.12984355
0.31509858
-0.025630068
0.08528044
-0.16075398
0.002664454
-0.0057788542
-0.075884774
-0.10340969
0.257839
-0.14273493
-0.11752533
0.20607156
-0.05364424
0.1846077
-0.054790456
-0.20358084
0.057398926
-0.14103255
-0.16138242
-0.2128018
-0.20747049
0.185959
0.12842886
0.28822368
0.31296948
0.279196
-0.18152413
-0.12220136
0.20072658
0.2009043
0.12927279
0.13436124
0.0206011
-0.06352373
-0.095976226
-0.10439464
-0.1747656
0.07404607
-0.07709869
-0.026817298
-0.12494845
0.20683426
-0.28936523
-0.14784952
0.10128416
0.16063035
0.067465395
0.19695804
0.07212296
0.099042915
-0.08788654
0.08959067
0.2155535
0.13222742
-0.12748869
-0.09341447
0.046880063
-0.19294405
0.0076179323
0.13690549
0.223151
-0.12980536
0.122119255
0.20469424
-0.12257304
-0.13725257
0.17290835
-0.01634412
-0.29954737
0.033051316
0.0045250873
0.1940506
-0.017630681
0.28907818
0.25316727
-0.15453544
0.13144465
-0.15533347
0.19734243
0.109270975
0.026528712
0.057495978
-0.071051985
0.06423866
-0.263966
0.11172083
0.027335133
0.10688364
0.02010142
0.066520385
-0.05584668
0.18843554
0.15295345
0.14220348
-0.21072163
0.06002898
0.2633953
-0.18821812
-0.07722761
-0.049742006
-0.20548597
-0.10913245
-0.23016764
0.0112567125
0.17788436
0.22976513
-0.22555184
-0.14736837
0.19325635
-0.2491007
0.047623716
0.22692317
-0.0008531352
0.23282222
-0.1387484
-0.079640254
-0.19998796
0.27620736
-0.006607012
0.023130855
-0.16236
-0.16481617
-0.05720344
-0.16418625
-0.11649967
-0.31281662
0.19095452
0.015999135
-0.17221911
-0.12324056
-0.1993232
0.0135693075
-0.08191529
-0.056529
0.1587778
-0.325695
-0.1638931
0.12519708
0.21437678
-0.06704405
-0.06756137
0.29100877
-0.14662805
0.20589809
-0.23441896
0.16597073
-0.06537242
0.072424
-0.064706065
-0.0046185036
0.2290576
0.1693941
0.19116296
0.23604603
0.04940268
0.07141609
0.1284784
-0.1849105
0.11424236
0.12334005
-0.19885136
0.1215856
-0.043176144
0.03248899
-0.2571393
0.14808388
-0.19066288
-0.104726054
-0.20329908
0.14044496
0.13138752
-0.04452687
0.16240989
0.07923774
0.12907127
0.10474328
0.0058780033
-0.007671356
0.10777626
0.24496709
0.09898054
0.075208455
-0.14658664
0.03130989
-0.106032446
-0.13742526
-0.24017964
0.21300514
-0.15637444
-0.10572423
0.23911984
-0.023471147
0.1932628
0.013919597
-0.041820414
-0.145459
0.15810591
0.2823937
-0.19968303
0.29028907
0.30617985
0.06510711
0.06785195
0.10587826
-0.19982718
-0.17601708
0.09328266
-0.046126064
0.029559398
0.3011606
-0.0069104824
0.27686313
-0.22002026
0.23724252
-0.21026394
-0.29979536
0.17926885
-0.16643567
-0.17110148
-0.12238217
0.021126885
0.1666355
-0.059311997
-0.05491932
0.022331364
0.03079126
0.06112287
0.18685836
0.12882237
0.24454859
-0.29721007
0.09025022
0.0030917975
0.31066045
-0.1414382
0.13783248
-0.1448347
-0.09926408
0.13637333
-0.17489557
0.18605383
-0.147156
-0.21204874
0.0025174415
0.17862964
0.22561833
-0.11434084
0.22114652
0.101701416
0.06211649
0.20859404
-0.31357694
0.06472389
-0.24402347
-0.025009902
0.021225182
-0.16103534
-0.03810463
-0.17333108
-0.23074841
0.25712317
0.06557
-0.002235851
-0.102133
0.2608189
0.12060295
-0.028515335
0.27131015
0.18174632
0.32575706
0.17318885
0.1685797
0.111267954
-0.1781955
0.045450862
0.2728564
-0.009619042
0.15765285
-0.21401867
0.07388402
-0.12132533
-0.021011576
0.20205624
0.18364051
0.04550149
0.17810592
-0.018909095
-0.06146648
0.063217446
0.13863248
-0.08459165
-0.23703189
-0.16608138
-0.14294475
0.1693693
0.11431856
0.110703595
0.21578684
0.06808716
-0.22360584
-0.23308699
-0.23797035
-0.25941792
-0.09641276
0.07707645
0.13547753
0.08069092
0.022444002
0.098935336
0.026114373
0.124053575
-0.0018566719
-0.23418754
-0.10933697
-0.09138542
0.2128129
-0.23594974
0.112010054
0.20624964
-0.049801175
-0.1322453
0.041388553
0.08292662
0.13021336
-0.12297796
0.018703314
0.045930926
0.011945737
-0.042130176
-0.36571097
0.10726265
-0.1151997
0.19692165
0.11228094
0.24582732
-0.20856008
0.010710462
-0.007998682
0.05361833
-0.2832578
0.038570832
-0.228247
0.095573865
0.1835046
0.030498441
-0.2333975
-0.04288009
-0.040450796
0.16717796
-0.027914222
-0.32551163
0.036933836
0.02409495
-0.27641124
0.06308609
0.20129433
-0.0072482405
-0.14683287
0.15711099
-0.18413644
-0.20635812
0.10441095
0.015857015
0.13256137
-0.022390945
0.09207641
-0.19621137
0.251651
-0.1114519
-0.1812244
-0.25593993
-0.1309165
0.048471585
-0.15677172
0.11935653
-0.20526384
-0.053713158
-0.057098396
-0.14528269
0.21547107
0.10101894
0.17930683
0.10247562
-0.03631336
-0.17347814
0.20337568
-0.037102036
0.20419492
-0.15747188
-0.23709446
0.20120375
0.084691904
-0.20915166
0.018195907
0.070365824
-0.16696759
0.21909809
-0.16944152
-0.05286149
-0.024243476
-0.16496783
-0.08600144
0.009798005
-0.059725583
-0.06822893
-0.22994424
-0.1420192
0.16037232
0.23753567
0.13583617
-0.0847401
0.08423211
-0.21780547
0.15602043
0.2986274
-0.21697073
0.30449697
-0.16589339
-0.041733503
-0.039770406
0.092226796
0.007211186
0.17590821
-0.1823906
-0.14861794
-0.2267193
-0.20081522
-0.2067938
0.018979795
0.1034407
-0.29245922
-0.10550719
0.09863572
-0.020862183
-0.12299681
-0.19239204
0.030827105
-0.0701417
0.12304891
-0.19198976
0.35969704
0.22915752
-0.17595345
0.09526634
-0.29274184
-0.05867662
-0.05136202
-0.111456305
0.2495028
0.063203245
0.22916041
-0.2591695
0.066536054
0.19663599
0.14225051
-0.12065991
0.005058
0.04486016
0.19477396
0.31186882
-0.07480836
-0.06758459
0.104948305
-0.099066496
0.15130389
0.16080722
-0.14867406
0.056727417
0.15274347
0.1206151
0.26251033
-0.0729889
-0.06968698
-0.11212784
-0.18546233
-0.30956712
0.2265714
0.19728395
0.10677663
0.06600767
-0.21377416
-0.23374864
-0.09817035
0.04387179
0.073097534
-0.03776169
-0.0043075057
-0.062534705
-0.16824639
-0.08301862
-0.21098137
-0.11844408
-0.036699366
0.18859714
0.059807185
0.21068655
0.05878019
0.21333322
0.24644011
-0.11003865
-0.17165518
-0.03530303
-0.03780674
0.015639834
-0.24752313
-0.099256545
0.061730105
-0.13309728
0.13844457
0.19566718
0.09970296
0.0052311667
-0.16364357
0.16269739
-0.1659304
-0.11297989
0.08041376
-0.14063038
-0.1772636
-0.13061267
0.021550171
-0.22232051
-0.12437826
-0.097617194
-0.0167574
0.16808112
-0.09401627
0.04463676
0.19808266
-0.20622075
0.19629698
0.06428426
-0.03355459
0.15242465
0.091169074
-0.030528056
0.2844684
-0.11666873
0.03453281
0.23592733
-0.11040673
-0.21836483
-0.0074018706
0.10537543
0.10401538
-0.13227998
-0.30090445
-0.03187298
0.20448981
0.1272762
0.0774281
-0.030118417
-0.11918282
-0.21085006
-0.30549118
-0.038882297
-0.22112161
0.023595672
0.065838285
-0.036963776
0.055752795
0.26811334
0.08947813
0.04105569
0.055460718
0.17520559
-0.040258616
0.13793257
0.2372314
-0.0693508
0.22132483
0.22941127
-0.07062345
-0.06937122
-0.18416622
-0.25303245
-0.03879236
-0.034023453
0.18507013
0.13100807
-0.0460637
0.14575127
0.062722996
0.02158986
0.23391508
-0.16863088
0.2498414
0.032230124
0.223066
-0.21611138
-0.21499208
-0.18393609
-0.17840414
-0.007772899
-0.17677924
-0.23938274
0.016754206
-0.1650093
0.13301131
0.19943188
-0.20999055
-0.11494794
-0.14348339
0.22270074
0.082796104
-0.14005639
-0.08779248
0.16015506
-0.11305936
-0.20904498
0.09673003
0.21815944
-0.028152747
-0.064995825
-0.029569563
-0.2196442
0.007000459
0.19430389
0.1996486
-0.0730907
0.049011704
-0.029436428
-0.058010183
0.17135623
-0.021360435
-0.030299406
0.109768786
-0.18472819
-0.03515308
-0.13929355
0.213747
-0.012991981
0.13745093
0.10242136
-0.15129767
-0.08114722
0.22528885
0.05371469
0.029755317
0.100536644
-0.24152495
0.22600201
-0.3318214
-0.1514089
0.03004508
0.05569236
0.102926366
0.14922963
-0.019999433
-0.09558362
-0.10658918
-0.14614022
-0.057727076
-0.32912046
-0.1164438
0.24690057
-0.009438301
-0.18827549
0.1625003
0.080563135
-0.17938195
-0.11044631
0.20652065
0.009580903
0.30665568
-0.06787336
0.034203205
0.12722918
0.0686474
-0.22144593
0.046141643
0.30496138
-0.031574856
0.0152881555
0.3756425
0.15418649
-0.113460295
-0.102069385
-0.0009317196
0.054796893
0.13999595
-0.13405968
0.05337811
-0.027086942
-0.118415415
0.16924329
-0.011337236
0.2123954
0.1945803
-0.15121605
0.18400216
0.14921077
0.25985712
0.021309027
-0.16229685
0.025747554
0.05363885
0.004212544
0.19353604
0.20162794
0.0449027
-0.07774029
-0.1596811
0.20895748
-0.31373334
-0.1544108
0.20273079
-0.0076790466
0.16176355
-0.17041099
0.23778304
-0.040904112
0.09390204
-0.10486706
-0.12195499
-0.21475287
-0.21637566
0.027969277
0.040993184
0.14199941
-0.20768034
-0.12953164
0.3084179
-0.1637708
0.02746705
-0.13790572
0.2730921
0.040869165
-0.11791134
0.18656151
0.09508218
0.008828768
-0.06392681
0.2010655
-0.053755917
0.28114605
-0.062307104
0.19523805
0.00085561175
-0.028414302
0.20989946
0.25095946
0.15668315
0.10529589
-0.20848115
0.23704486
-0.151443
-0.14354865
0.09719581
-0.24581842
0.17647192
0.09088754
0.14119959
-0.02933212
-0.004552518
-0.08405125
-0.19503345
-0.01090227
-0.012746098
-0.03249745
-0.2305848
0.020529557
0.03675676
0.07028739
0.25752676
0.1464501
0.16394868
-0.019470226
0.13452926
0.13952224
0.018425446
-0.09602617
0.267414
-0.18576862
0.22545807
0.14979663
-0.14848307
0.099501096
-0.009202962
0.18497759
-0.011428308
0.12475742
-0.17723064
-0.05291317
0.15811928
-0.21787885
-0.09126768
0.18279879
0.1986365
0.22921604
-0.19822691
0.10202949
0.27893525
-0.1300828
0.12008377
-0.24466142
-0.053558454
# B
0.013528425
0.05942081
0.036282893
0.017677559
0.012852499
0.034042522
-0.0060216477
0.028769653
0.007960805
-0.018903587
0.004181064
0.0067964746
0.0055803778
-0.027550662
-0.0031653023
-0.027069284
0.039362412
0.011485549
0.039670866
-0.022629248
-0.00085304066
-0.017604673
0.022663057
-0.025592083
0.007844042
0.0052192756
-0.02437674
0.037003882
0.053419515
-0.0011828003
0.036935207
-0.03697844
# Layer Number: 2
relu
16 32
# W
-0.16400619
-0.18255375
0.23555867
-0.20549747
-0.38595787
0.35221002
0.016992118
0.08903823
-0.29292434
0.056587186
0.1211137
-0.2837475
0.3941436
-0.041156966
0.37751898
-0.28462413
0.008851621
0.38086823
0.5597771
-0.013459139
0.52093697
-0.28521043
0.3444022
0.2860489
0.13797197
0.081661575
0.18072544
0.27780855
-0.11637371
-0.4615004
-0.37698132
0.373054
-0.33444703
0.06680645
-0.3563831
0.18453203
0.37350902
-0.14001462
-0.23334207
-0.19852458
0.00774888
0.27435538
-0.035065714
-0.07506694
0.28436643
0.20914951
-0.27372077
0.032877088
-0.44071594
0.3126513
0.46699816
0.40392044
0.07903264
-0.37481216
0.22853948
0.178952
0.45841858
0.14208184
0.13950202
0.41282436
0.006280992
-0.3464785
-0.43170112
-0.13953373
0.37912193
-0.038616866
0.13004562
0.07989069
0.25011915
-0.18615802
0.2734142
-0.0027359137
0.11382949
0.028783096
0.23134674
-0.206942
0.0018360141
-0.072626784
0.14071947
0.30625114
-0.12002598
0.2937862
0.074652955
-0.1291162
-0.16191855
-0.012083513
-0.22794789
0.02695878
-0.15440531
-0.1783491
-0.09363962
-0.22017062
0.275091
0.09010606
0.24314134
0.15854676
-0.15286112
-0.20274734
-0.22521746
-0.24506485
0.11986386
0.2746062
-0.10066025
-0.1265273
0.15969014
0.258529
-0.026682878
-0.35702208
-0.11033437
0.022713851
0.11857039
-0.3105626
0.1600188
0.08197052
0.108781986
0.0890603
-0.32246897
-0.25475043
0.33878902
0.28720894
0.32584792
0.038493525
0.32667762
-0.09042419
0.05017538
0.16211821
-0.11444606
0.03641799
0.10633251
0.35417345
-0.062484737
0.41027567
0.071116515
0.19299953
0.09237168
-0.2881316
-0.10931194
-0.13129333
0.1812959
0.24793272
-0.22678234
0.09905174
-0.2729621
0.4295052
-0.2651902
-0.012209726
-0.28148392
-0.16375181
0.26186666
-0.107313454
-0.13948657
0.14620724
-0.38097858
-0.009911625
-0.3275857
-0.12754491
0.2635662
0.050255675
0.39374554
-0.21292722
-0.51193637
0.26855204
-0.04639546
0.31913552
0.27351034
0.019302769
0.20335595
0.23324202
-0.08880464
-0.30927935
0.12893595
0.59251225
-0.3979411
-0.07133426
0.009043487
0.45238754
0.27556688
0.26564878
-0.30978686
-0.14041877
0.32356915
-0.053655464
-0.20998396
0.04700978
0.18734832
-0.15207864
-0.32464585
-0.16933505
-0.2838868
0.074381426
-0.008988872
0.31163576
-0.3995453
0.020684857
0.09062772
0.50127864
0.08303908
-0.38237947
0.48572582
0.20493323
0.2769982
-0.2518691
0.24000728
0.52734655
-0.16115096
-0.092239656
-0.26879886
0.260992
0.112937294
-0.24217866
-0.17783351
0.023709835
0.22689088
0.033361737
-0.17376499
0.22192475
-0.16989851
0.1159078
-0.06434083
0.11191219
0.37866995
0.3192131
0.2349208
-0.4139344
-0.4264675
0.3954968
0.13025372
-0.19661741
0.47762117
-0.009337838
0.29307714
-0.18004876
0.23206228
-0.017269379
0.42864412
0.26113814
-0.051265366
-0.20092031
-0.12011362
0.11521701
-0.111818515
-0.18315248
0.027442273
-0.13392285
-0.007021188
0.39278787
0.09974933
0.19261464
-0.064075805
0.28192082
-0.13688023
-0.1704879
-0.27556446
-0.2051213
0.24946964
-0.35833594
-0.03870117
0.34903687
0.1745079
0.2866382
-0.38789943
-0.30916914
0.109972626
0.014513631
0.0149556855
0.08254718
0.31123486
0.29993093
0.27936056
0.005869919
-0.30457115
-0.14447074
-0.079354465
-0.21750127
0.16293119
0.19888493
0.11891942
-0.090624355
-0.18401873
0.2147441
-0.13806257
-0.07633917
-0.23810901
0.23671317
-0.22801995
0.023546811
-0.29528043
0.1517526
0.37297374
-0.20594376
-0.26770514
0.14955044
-0.016135233
0.37711343
0.011205211
-0.4123826
0.114180915
-0.06692133
0.084600694
-0.010081711
0.009998428
0.010969556
0.044273365
0.14040186
0.054496158
0.2437268
0.26488665
0.06462473
-0.3251091
-0.2893102
0.12120174
0.32536757
0.19050868
-0.46123523
0.21892154
0.34054837
-0.2333084
-0.1965357
0.062193695
-0.11937473
-0.2105489
0.39842755
0.04960174
-0.08141422
-0.18072094
0.3012528
0.37155226
-0.25315756
0.37309414
0.03576749
-0.20996937
0.008670943
-0.08459977
-0.24975598
0.027273657
-0.06735598
0.15580468
0.3118174
0.04902018
-0.31240997
-0.10838726
-0.27876294
-0.3433286
-0.23490483
0.26790673
0.0391638
-0.29145524
0.10285572
0.29660353
-0.29145053
-0.28674927
-0.21993227
0.07939471
0.124931954
0.22850308
-0.0054217316
0.20452082
-0.32315913
0.14954849
-0.35900998
0.063885614
0.29460153
-0.22010343
0.2899565
-0.16887069
-0.086917765
0.27094236
-0.1341014
-0.376473
0.114368185
0.042823672
0.25936323
0.079608634
0.18569626
-0.14843263
0.009953701
-0.23726638
-0.00035756492
-0.16048159
0.21847624
-0.22485407
-0.019390754
-0.030350294
-0.23493293
0.10757478
0.26514667
-0.07420425
0.28423017
0.39457077
-0.42179525
0.38634402
-0.31561387
0.26788443
0.0039326604
0.22615169
0.17775707
-0.051565606
-0.3539626
0.27470484
-0.036974493
0.41626203
-0.13477543
-0.31453544
0.088421136
-0.3420263
-0.24471807
-0.17772628
0.053074997
0.01794169
0.3239231
-0.21713124
0.24977975
0.43130735
0.46874318
0.41225407
-0.31153497
0.022616612
-0.30614197
0.15974072
0.016208524
-0.20038337
-0.13874711
-0.03431896
0.045018252
0.2822604
0.25708365
0.1294685
-0.12075866
-0.110985816
0.24993968
0.14263342
-0.15942363
0.17935506
-0.113150954
0.25551936
0.090162754
-0.08231071
0.13977912
0.16844901
0.33471286
0.09341493
0.2211343
0.06176248
-0.25070667
-0.05989419
0.26813382
0.3432137
0.23690563
-0.4511685
0.54980433
0.19511092
0.51242894
0.05099811
-0.4636596
0.5913486
0.06862054
-0.038200513
-0.59102106
0.14940156
0.4921103
-0.35848057
-0.17293556
-0.23257138
0.3056574
-0.31366402
0.21201634
0.18260916
-0.10364738
0.03403234
-0.10251993
0.21601607
0.2347309
0.26351377
0.28549427
0.10837818
-0.045442343
-0.10275191
0.15456204
0.016349653
-0.12584853
0.11541439
-0.23656745
-0.25899574
-0.22853091
-0.25093544
0.38764367
0.15549466
0.2386221
-0.05096051
-0.24614182
0.108239114
-0.11181574
0.43363383
0.44132912
0.28191385
-0.16774347
-0.34150308
-0.36070928
-0.22910984
-0.09406861
-0.1537577
-0.293363
-0.07378928
0.2578967
-0.23171243
0.24903545
0.17559724
0.2554508
-0.07368134
0.2867197
0.0748371
0.27433714
# B
0.04548812
0.033904944
0.039654333
0.012342772
0.012405567
0.0671194
-0.009546175
-0.015098024
0.001808213
0.03826176
0.003322851
0.06526064
0.072621375
0.038128126
0.040295452
0.025384946
# Layer Number: 3
sigmoid
1 16
# W
0.4642842
-0.49473646
-0.6464143
-0.5276349
-0.689806
0.459985
-0.5447498
-0.54009616
-0.4611607
0.11163826
-0.1951426
-0.40850383
0.70774627
0.5781959
0.7324531
-0.6545134
# B
0.02108132
